digraph Tree {
node [shape=box, style="filled, rounded", color="black", fontname="helvetica"] ;
edge [fontname="helvetica"] ;
0 [label="exam <= 0.5\nsquared_error = 1e-06\nsamples = 2048\nvalue = 0.016935", fillcolor="#f3c5a3"] ;
1 [label="weather <= 0.5\nsquared_error = 1e-06\nsamples = 1024\nvalue = 0.016599", fillcolor="#f6d3ba"] ;
0 -> 1 [labeldistance=2.5, labelangle=45, headlabel="True"] ;
2 [label="coursenumber <= 0.5\nsquared_error = 1e-06\nsamples = 512\nvalue = 0.01619", fillcolor="#fae5d6"] ;
1 -> 2 ;
3 [label="type <= 0.5\nsquared_error = 1e-06\nsamples = 256\nvalue = 0.016523", fillcolor="#f7d6bf"] ;
2 -> 3 ;
4 [label="squared_error = 2e-06\nsamples = 128\nvalue = 0.016805", fillcolor="#f4caac"] ;
3 -> 4 ;
5 [label="squared_error = 0.0\nsamples = 128\nvalue = 0.016242", fillcolor="#f9e3d2"] ;
3 -> 5 ;
6 [label="tutorium_test_cancelled <= 0.5\nsquared_error = 0.0\nsamples = 256\nvalue = 0.015856", fillcolor="#fdf3ed"] ;
2 -> 6 ;
7 [label="squared_error = 0.0\nsamples = 128\nvalue = 0.016122", fillcolor="#fae8db"] ;
6 -> 7 ;
8 [label="squared_error = 0.0\nsamples = 128\nvalue = 0.01559", fillcolor="#ffffff"] ;
6 -> 8 ;
9 [label="coursenumber <= 0.5\nsquared_error = 0.0\nsamples = 512\nvalue = 0.017009", fillcolor="#f2c19e"] ;
1 -> 9 ;
10 [label="studyarea <= 0.5\nsquared_error = 1e-06\nsamples = 256\nvalue = 0.017195", fillcolor="#f1b991"] ;
9 -> 10 ;
11 [label="squared_error = 1e-06\nsamples = 128\nvalue = 0.017523", fillcolor="#eeab7b"] ;
10 -> 11 ;
12 [label="squared_error = 0.0\nsamples = 128\nvalue = 0.016867", fillcolor="#f4c7a8"] ;
10 -> 12 ;
13 [label="type <= 0.5\nsquared_error = 0.0\nsamples = 256\nvalue = 0.016823", fillcolor="#f4c9ab"] ;
9 -> 13 ;
14 [label="squared_error = 0.0\nsamples = 128\nvalue = 0.016943", fillcolor="#f3c4a3"] ;
13 -> 14 ;
15 [label="squared_error = 0.0\nsamples = 128\nvalue = 0.016703", fillcolor="#f5cfb3"] ;
13 -> 15 ;
16 [label="studyarea <= 0.5\nsquared_error = 1e-06\nsamples = 1024\nvalue = 0.017271", fillcolor="#f0b68c"] ;
0 -> 16 [labeldistance=2.5, labelangle=-45, headlabel="False"] ;
17 [label="coursenumber <= 0.5\nsquared_error = 1e-06\nsamples = 512\nvalue = 0.017726", fillcolor="#eca26d"] ;
16 -> 17 ;
18 [label="registered <= 0.5\nsquared_error = 1e-06\nsamples = 256\nvalue = 0.018275", fillcolor="#e78a48"] ;
17 -> 18 ;
19 [label="squared_error = 1e-06\nsamples = 128\nvalue = 0.018489", fillcolor="#e58139"] ;
18 -> 19 ;
20 [label="squared_error = 0.0\nsamples = 128\nvalue = 0.018061", fillcolor="#e99456"] ;
18 -> 20 ;
21 [label="type <= 0.5\nsquared_error = 0.0\nsamples = 256\nvalue = 0.017177", fillcolor="#f1ba93"] ;
17 -> 21 ;
22 [label="squared_error = 0.0\nsamples = 128\nvalue = 0.017402", fillcolor="#efb083"] ;
21 -> 22 ;
23 [label="squared_error = 0.0\nsamples = 128\nvalue = 0.016952", fillcolor="#f3c4a2"] ;
21 -> 23 ;
24 [label="weather <= 0.5\nsquared_error = 0.0\nsamples = 512\nvalue = 0.016816", fillcolor="#f4caab"] ;
16 -> 24 ;
25 [label="avgocc <= 0.5\nsquared_error = 0.0\nsamples = 256\nvalue = 0.016631", fillcolor="#f6d2b8"] ;
24 -> 25 ;
26 [label="squared_error = 0.0\nsamples = 128\nvalue = 0.016363", fillcolor="#f8ddca"] ;
25 -> 26 ;
27 [label="squared_error = 0.0\nsamples = 128\nvalue = 0.016898", fillcolor="#f3c6a6"] ;
25 -> 27 ;
28 [label="registered <= 0.5\nsquared_error = 0.0\nsamples = 256\nvalue = 0.017002", fillcolor="#f2c29f"] ;
24 -> 28 ;
29 [label="squared_error = 0.0\nsamples = 128\nvalue = 0.017184", fillcolor="#f1ba92"] ;
28 -> 29 ;
30 [label="squared_error = 0.0\nsamples = 128\nvalue = 0.01682", fillcolor="#f4caab"] ;
28 -> 30 ;
}